{
    "WidthLimit": 100,
    "bias": [
        [
            0.5625317692756653,
            0.06394853442907333,
            -0.2788773775100708,
            0.5364097952842712,
            0.000715987232979387,
            -0.1893891990184784,
            -0.5169553756713867,
            0.715483546257019
        ],
        [
            0.19245775043964386
        ]
    ],
    "weights": [
        [
            [
                -0.016550729051232338,
                0.01655738800764084,
                -0.01691422425210476,
                0.09259206056594849,
                -0.002467244863510132,
                -0.000915598007850349,
                0.0924757793545723,
                0.05132820084691048
            ],
            [
                -0.029358817264437675,
                0.08399519324302673,
                0.4779738187789917,
                0.36479830741882324,
                -0.0002655631396919489,
                0.017555439844727516,
                0.04861962050199509,
                0.24177433550357819
            ],
            [
                -0.08856768906116486,
                0.8238270878791809,
                -0.031632766127586365,
                -0.017465166747570038,
                -0.004872245714068413,
                -0.16349045932292938,
                -0.5095966458320618,
                0.2366296797990799
            ],
            [
                -0.1541508585214615,
                -0.033264514058828354,
                0.23534651100635529,
                0.3596327602863312,
                -0.000770603131968528,
                -0.8538959622383118,
                0.38802164793014526,
                -1.3244409561157227
            ],
            [
                -1.5386205911636353,
                0.6609426140785217,
                0.06751429289579391,
                -0.013384644873440266,
                0.0047874730080366135,
                -1.1609991788864136,
                -0.15426887571811676,
                0.47044244408607483
            ]
        ],
        [
            [
                0.7978336215019226
            ],
            [
                -0.4252130687236786
            ],
            [
                -0.22756820917129517
            ],
            [
                0.3586845397949219
            ],
            [
                0.00289664464071393
            ],
            [
                -0.8808031678199768
            ],
            [
                -0.299290269613266
            ],
            [
                0.6916345953941345
            ]
        ]
    ]
}