{
    "WidthLimit": 100,
    "bias": [
        [
            -0.07523629814386368,
            0.16108068823814392,
            0.09686700999736786,
            -0.00021801580442115664,
            -0.463273286819458,
            -0.09960946440696716,
            0.49353814125061035,
            -0.00010729338828241453,
            0.13325752317905426,
            -0.02678169496357441
        ],
        [
            -0.15868131816387177,
            -0.072180837392807,
            -0.09429782629013062,
            -0.27013275027275085,
            -0.04873751103878021,
            0.0010992537718266249,
            -0.11002635210752487,
            -0.018444139510393143,
            0.1427655667066574,
            0.18968607485294342
        ],
        [
            0.09834922850131989
        ]
    ],
    "weights": [
        [
            [
                0.0371706597507,
                -0.03902386128902435,
                0.030698716640472412,
                0.0013117165071889758,
                -0.03098679706454277,
                -0.035474590957164764,
                -0.011263508349657059,
                0.03384936973452568,
                0.016797102987766266,
                0.03159724548459053
            ],
            [
                0.09828541427850723,
                0.12785646319389343,
                0.14595690369606018,
                -6.658019992755726e-05,
                -0.2162744551897049,
                0.10195473581552505,
                -0.0049726651050150394,
                0.01550617441534996,
                -0.0017235447885468602,
                0.6328681111335754
            ],
            [
                0.17758889496326447,
                0.3947508633136749,
                -0.5107793807983398,
                0.0004578385269269347,
                -0.24987566471099854,
                0.689408540725708,
                -0.05341508984565735,
                0.002471258630976081,
                0.16627109050750732,
                -0.35278746485710144
            ],
            [
                0.29195669293403625,
                -0.24142508208751678,
                0.5346852540969849,
                0.0002903788408730179,
                1.1599719524383545,
                0.28645381331443787,
                -0.19580376148223877,
                0.009664572775363922,
                0.8732736706733704,
                0.09411328285932541
            ],
            [
                -0.4514886140823364,
                -0.022592049092054367,
                -0.6343222856521606,
                -0.002056366764008999,
                -0.42936015129089355,
                0.22781775891780853,
                -1.5369102954864502,
                0.0025050288531929255,
                1.0693084001541138,
                -0.4179114103317261
            ]
        ],
        [
            [
                -0.030062753707170486,
                -0.08169794082641602,
                -0.036489423364400864,
                -0.174292653799057,
                -0.3035982847213745,
                0.0011714466381818056,
                -0.03646111488342285,
                -0.1952100396156311,
                -0.05970503389835358,
                0.12924280762672424
            ],
            [
                -0.27980944514274597,
                -0.06861884146928787,
                -0.05094756558537483,
                0.18940657377243042,
                -0.05360288545489311,
                0.0005752074648626149,
                -0.05961673706769943,
                -0.0031764062587171793,
                0.13015666604042053,
                0.09493822604417801
            ],
            [
                0.09452936798334122,
                -0.1527138352394104,
                -0.14670570194721222,
                -0.11181364953517914,
                -0.4536338448524475,
                -0.001215043943375349,
                -0.1730300635099411,
                -0.346012681722641,
                0.1634419709444046,
                0.34477975964546204
            ],
            [
                -0.0010940269567072392,
                0.001361951231956482,
                0.0005447579314932227,
                0.003609191160649061,
                -0.0024243942461907864,
                -8.827900455798954e-05,
                0.0004872378776781261,
                -0.0010905826929956675,
                -0.004124687984585762,
                0.0005116874817758799
            ],
            [
                0.7051851749420166,
                0.3493689000606537,
                0.24697959423065186,
                0.20328547060489655,
                0.23847511410713196,
                0.0005278768367134035,
                0.25657761096954346,
                0.07686929404735565,
                -0.5104745030403137,
                -0.18013623356819153
            ],
            [
                0.3030182719230652,
                0.15004433691501617,
                0.09341483563184738,
                0.23825937509536743,
                -0.1147814393043518,
                -0.0003403852169867605,
                0.14240504801273346,
                0.06873694062232971,
                -0.33926302194595337,
                0.014923961833119392
            ],
            [
                -0.16448642313480377,
                -0.10089059174060822,
                -0.05305397883057594,
                -1.1006616353988647,
                -0.19075605273246765,
                -0.000503025483340025,
                -0.06271377205848694,
                -0.12167184799909592,
                -0.11425884068012238,
                0.0467168353497982
            ],
            [
                0.0652029812335968,
                -0.008703017607331276,
                -0.0027051493525505066,
                -0.012229823507368565,
                -0.05645466968417168,
                2.1667588043783326e-06,
                -0.004023695830255747,
                -0.009244559332728386,
                -0.005566117819398642,
                0.030335497111082077
            ],
            [
                -0.3996143639087677,
                -0.4054130017757416,
                -0.28613993525505066,
                0.5185161828994751,
                -0.6161692142486572,
                0.00015177718887571245,
                -0.21915435791015625,
                -0.25577178597450256,
                0.43103283643722534,
                0.5150611400604248
            ],
            [
                0.42170411348342896,
                0.0579955168068409,
                0.04659951478242874,
                0.14223960041999817,
                -0.03927471861243248,
                0.00014087419549468905,
                0.14712415635585785,
                -0.006292227655649185,
                -0.0798659548163414,
                0.07826976478099823
            ]
        ],
        [
            [
                -0.6394387483596802
            ],
            [
                -0.34406334161758423
            ],
            [
                -0.2017725706100464
            ],
            [
                -0.6061097979545593
            ],
            [
                -0.5479655861854553
            ],
            [
                -0.00019443278142716736
            ],
            [
                -0.25274112820625305
            ],
            [
                -0.25514230132102966
            ],
            [
                0.48576486110687256
            ],
            [
                0.3973329961299896
            ]
        ]
    ]
}