{
    "WidthLimit": 100,
    "bias": [
        [
            0.028798533603549004,
            0.063294917345047,
            0.05120760202407837,
            -0.06392000615596771,
            0.3060419261455536,
            -0.11249388009309769,
            -0.14999598264694214,
            0.25895270705223083,
            0.4308846592903137,
            0.13077770173549652
        ],
        [
            0.11315237730741501,
            -0.0005016519571654499,
            -0.0016151764430105686,
            0.2804460823535919,
            0.39460617303848267,
            0.0004321927553974092,
            -0.07202137261629105,
            -0.0007320638396777213,
            -1.1810901924036443e-05,
            0.07864727079868317,
            0.0030539571307599545,
            -0.009345951490104198
        ],
        [
            0.035942427814006805,
            -0.07007504254579544,
            -0.032623644918203354,
            0.07177869230508804,
            0.13309824466705322,
            0.003394634695723653,
            0.00019490453996695578,
            -0.08454899489879608,
            -0.18755103647708893,
            0.0038243872113525867
        ],
        [
            0.3378201723098755
        ]
    ],
    "weights": [
        [
            [
                -0.023121634498238564,
                0.001577392453327775,
                0.11606229841709137,
                0.21049685776233673,
                -0.2890652120113373
            ],
            [
                0.0049092997796833515,
                -0.087507463991642,
                -0.3494144678115845,
                -1.0582481622695923,
                -1.0031030178070068
            ],
            [
                -0.005619874689728022,
                -0.09684862196445465,
                -0.8062368631362915,
                -0.12320777773857117,
                -0.4135459065437317
            ],
            [
                0.025067394599318504,
                -0.15410827100276947,
                0.13699094951152802,
                0.32715675234794617,
                1.266841173171997
            ],
            [
                -0.0017782652284950018,
                -0.4693165123462677,
                0.24088704586029053,
                -0.17300044000148773,
                0.05433652549982071
            ],
            [
                -0.04464046284556389,
                -0.08003861457109451,
                -0.057450637221336365,
                0.14108438789844513,
                0.091274194419384
            ],
            [
                -0.08037234842777252,
                -0.2886515259742737,
                -0.26217272877693176,
                0.3726138174533844,
                -0.1012844368815422
            ],
            [
                0.007158227264881134,
                0.1663314253091812,
                -0.0988219678401947,
                0.7583560943603516,
                -0.7821187973022461
            ],
            [
                -0.0007204754510894418,
                0.16231127083301544,
                0.37805309891700745,
                -0.7368884086608887,
                0.3336084187030792
            ],
            [
                0.0015187020180746913,
                -0.010647823102772236,
                -0.4371720850467682,
                -0.6953825354576111,
                0.1312667429447174
            ]
        ],
        [
            [
                -0.11515917629003525,
                -0.3127237856388092,
                0.30016809701919556,
                0.5529140830039978,
                0.18225161731243134,
                0.05173651874065399,
                -0.1597524732351303,
                0.36198505759239197,
                0.3363880515098572,
                0.29777270555496216
            ],
            [
                -0.00503185298293829,
                0.0015313683543354273,
                0.0020134677179157734,
                0.002463524229824543,
                0.005095182452350855,
                -0.006682660896331072,
                5.76785605517216e-05,
                0.0012474952964112163,
                0.000501313537824899,
                0.0009424235904589295
            ],
            [
                0.012659651227295399,
                0.004111781250685453,
                0.04040125012397766,
                -0.013011549599468708,
                -0.0313895121216774,
                0.011880993843078613,
                0.023451054468750954,
                0.03113379143178463,
                -0.03423486277461052,
                -0.0029305866919457912
            ],
            [
                0.1857345551252365,
                -0.7300999164581299,
                0.32493603229522705,
                0.47642746567726135,
                0.08486975729465485,
                -0.00024974302505142987,
                -0.18017643690109253,
                0.4341660141944885,
                0.21237000823020935,
                -0.15760554373264313
            ],
            [
                0.1160256490111351,
                0.7934327125549316,
                0.15940208733081818,
                -0.8525723814964294,
                0.40607044100761414,
                -0.10351481288671494,
                -0.06910109519958496,
                0.6264051198959351,
                0.14945043623447418,
                -0.38062208890914917
            ],
            [
                0.004266733769327402,
                -0.001249827677384019,
                -0.0005798909114673734,
                -0.0025437045842409134,
                -0.0033521633595228195,
                0.005673290695995092,
                0.0001014892477542162,
                0.00017109017062466592,
                -0.001715877209790051,
                0.0007752039236947894
            ],
            [
                -0.1563728153705597,
                0.3891461491584778,
                -0.2687350809574127,
                -0.2193150520324707,
                0.017569750547409058,
                0.018327003344893456,
                -0.004350881092250347,
                -0.43191084265708923,
                -0.040537770837545395,
                -0.04321311414241791
            ],
            [
                0.005233315750956535,
                0.00024508999194949865,
                0.006162755191326141,
                0.00197386322543025,
                -0.014593269675970078,
                0.008538292720913887,
                0.004294108599424362,
                0.007170073688030243,
                -0.006102538201957941,
                -0.002055433811619878
            ],
            [
                -0.0056023141369223595,
                0.0015444658929482102,
                -0.0007347494247369468,
                0.00087259168503806,
                0.010664557106792927,
                -0.008469653315842152,
                -0.002093883231282234,
                0.0017116868402808905,
                0.0010979562066495419,
                0.007383916061371565
            ],
            [
                -0.1880708634853363,
                0.1089637354016304,
                0.15650956332683563,
                0.09245558083057404,
                0.16506154835224152,
                -0.15588024258613586,
                -0.361026406288147,
                -0.550292432308197,
                0.8603661060333252,
                0.6700249910354614
            ],
            [
                0.0076690129935741425,
                0.00956820510327816,
                0.030178029090166092,
                -0.013086557388305664,
                -0.011776882223784924,
                -0.000774610205553472,
                0.009801455773413181,
                0.02091599442064762,
                -0.01175316795706749,
                0.003228489775210619
            ],
            [
                -0.0016436065779998899,
                -0.019736340269446373,
                -0.02070409432053566,
                0.005349945742636919,
                -0.015902692452073097,
                0.015775011852383614,
                0.00958632305264473,
                -0.01251028012484312,
                -0.013222487643361092,
                -0.014547135680913925
            ]
        ],
        [
            [
                -0.12025231868028641,
                0.0003942065523006022,
                0.02426849491894245,
                -0.23164549469947815,
                -0.2962023615837097,
                0.00045924325240775943,
                0.12102296203374863,
                0.003552778856828809,
                -1.4157179975882173e-05,
                -0.10005376487970352,
                0.012378782033920288,
                -0.004728341940790415
            ],
            [
                0.2145930677652359,
                -0.0005478219245560467,
                -0.023160986602306366,
                0.342151015996933,
                0.3128584623336792,
                -7.856454612920061e-05,
                -0.2007056474685669,
                -0.0022391907405108213,
                -0.0007613752968609333,
                0.14727500081062317,
                -0.011659681797027588,
                0.005285506136715412
            ],
            [
                -0.11839079111814499,
                -0.0010470071574673057,
                0.024304790422320366,
                -0.16344572603702545,
                -0.1472657471895218,
                0.0016877654707059264,
                0.07231246680021286,
                0.005112421233206987,
                -0.0016077663749456406,
                -0.16943876445293427,
                0.011995780281722546,
                -0.003946186043322086
            ],
            [
                -0.13068655133247375,
                -0.000334191310685128,
                0.024433763697743416,
                -0.18199340999126434,
                -0.2410673201084137,
                0.0011232326505705714,
                0.09404681622982025,
                0.004456672351807356,
                -0.0009543198393657804,
                -0.12875574827194214,
                0.01223659235984087,
                -0.004178345203399658
            ],
            [
                -0.34471723437309265,
                -0.0019159010844305158,
                0.027028487995266914,
                -0.2736054062843323,
                -0.3927192986011505,
                0.0026967909652739763,
                0.08378174155950546,
                0.008194000460207462,
                -0.004204311408102512,
                -0.4112693965435028,
                0.013297203928232193,
                -0.002058205893263221
            ],
            [
                0.14550460875034332,
                9.844694432104006e-05,
                -0.02412496693432331,
                0.20362378656864166,
                0.2226514220237732,
                -0.0008637146092951298,
                -0.11832290142774582,
                -0.004092107526957989,
                0.0006474861293099821,
                0.11896567791700363,
                -0.012125384993851185,
                0.00423765555024147
            ],
            [
                0.0003968931850977242,
                9.851781942415982e-05,
                -0.0014470410533249378,
                0.00035464903339743614,
                -0.0009430422214791179,
                -5.9198828239459544e-05,
                -0.00023566385789308697,
                -0.0007040520431473851,
                0.0003202255174983293,
                0.0022103351075202227,
                0.00016247409803327173,
                -0.0016119980718940496
            ],
            [
                0.20999504625797272,
                -0.000333513249643147,
                -0.027226926758885384,
                0.27714523673057556,
                0.5333440899848938,
                -0.0007148245349526405,
                -0.06183864176273346,
                -0.005895623937249184,
                0.0018726341659203172,
                0.28696388006210327,
                -0.014318645000457764,
                0.0038107482250779867
            ],
            [
                0.30700933933258057,
                0.0009693884057924151,
                -0.023938793689012527,
                0.4414522647857666,
                0.3907429873943329,
                -0.0006358586251735687,
                -0.2619217038154602,
                -0.003349895356222987,
                0.0009135137079283595,
                0.3116394281387329,
                -0.011423405259847641,
                0.004598287399858236
            ],
            [
                0.027935458347201347,
                0.0020031926687806845,
                -2.007081639021635e-05,
                0.01171655859798193,
                -0.030021358281373978,
                -0.0008213085238821805,
                0.017415490001440048,
                -0.010014011524617672,
                0.007733619771897793,
                0.03168478235602379,
                0.010403847321867943,
                -0.03632894158363342
            ]
        ],
        [
            [
                -0.2843826711177826,
                0.4443047344684601,
                -0.1709427833557129,
                -0.21750567853450775,
                -0.5307986736297607,
                0.24854886531829834,
                0.000954478164203465,
                0.5593929886817932,
                0.6673738956451416,
                0.023578420281410217
            ]
        ]
    ]
}