{
    "WidthLimit": 100,
    "bias": [
        [
            0.011138238944113255,
            -0.16739237308502197,
            0.37282711267471313,
            0.2519013583660126,
            -0.06790544837713242,
            -0.1661270409822464,
            -0.43136468529701233,
            0.5730804800987244,
            0.6381080746650696,
            -0.29672253131866455
        ]
    ],
    "weights": [
        [
            [
                -0.03089500404894352,
                0.03188908100128174,
                -0.03076867014169693,
                0.11848888546228409,
                0.43447497487068176,
                0.972255527973175
            ],
            [
                -0.1213352307677269,
                -0.17586669325828552,
                0.43737107515335083,
                -0.24570108950138092,
                0.5311888456344604,
                -0.10306400805711746
            ],
            [
                0.07657984644174576,
                0.628188967704773,
                -0.5387481451034546,
                -0.054598573595285416,
                -0.1569352000951767,
                -0.10464153438806534
            ],
            [
                -0.7240960001945496,
                0.09309292584657669,
                -0.048345811665058136,
                0.3108507990837097,
                0.6016036868095398,
                0.5872876644134521
            ],
            [
                -0.051153622567653656,
                0.3625014126300812,
                -0.14295929670333862,
                0.7334023118019104,
                -0.17946839332580566,
                -0.6030941605567932
            ],
            [
                0.00544881634414196,
                -0.04791492223739624,
                0.1554032862186432,
                0.11495279520750046,
                -0.8313995599746704,
                0.7970876097679138
            ],
            [
                0.018656015396118164,
                0.8090459108352661,
                -0.1756754368543625,
                0.08310716599225998,
                -0.0030437393579632044,
                -0.14630399644374847
            ],
            [
                0.3340124189853668,
                -0.02402595616877079,
                0.15837492048740387,
                -0.0293977539986372,
                -0.09732406586408615,
                0.7519052028656006
            ],
            [
                -0.5685922503471375,
                0.06924039870500565,
                -0.0005451359320431948,
                0.021783724427223206,
                -0.15933722257614136,
                0.7217482328414917
            ],
            [
                -0.022357044741511345,
                -0.10888074338436127,
                0.0562766008079052,
                -0.6110256910324097,
                -0.6936463117599487,
                -0.5850618481636047
            ]
        ]
    ]
}